68 16
36 0.01563813 0.6139795 -0.20164986 -0.18380143 0.47734907 0.56770205 0.40891835 -0.4072455 0.19958381 0.5772285 0.052355293 0.6069279 0.664799 0.31181255 0.5174661 0.35233128
31 -0.08065313 0.61208487 -0.22005275 -0.18724433 0.57241946 0.52985215 0.31817874 -0.47844353 0.12957716 0.55876803 0.025687596 0.60233855 0.6481017 0.47060966 0.5779839 0.2894971
26 -0.06561947 0.6008848 -0.07420627 -0.21351859 0.6275231 0.5963368 0.32347172 -0.4931509 0.1671865 0.48892108 0.06665803 0.6490923 0.7219671 0.42913193 0.47282234 0.35258505
45 -0.07673552 0.6047676 -0.24832083 -0.17818306 0.42303708 0.5863856 0.37589684 -0.42133987 0.19873938 0.5605768 0.112417705 0.61241096 0.7242398 0.3211245 0.47266465 0.33181804
12 -0.05762536 0.5889463 -0.1925235 -0.192949 0.45490506 0.6279284 0.38635027 -0.3191067 0.19251966 0.6262972 0.0572841 0.5802913 0.72567755 0.36549723 0.6135181 0.43305087
61 -0.06647573 0.6045873 -0.17480707 -0.02560193 0.47929555 0.6717358 0.3267829 -0.43349674 0.33252057 0.55833566 -0.028797599 0.5493799 0.6742629 0.3922703 0.6637039 0.3676111
42 -0.03966262 0.6280665 -0.18543695 -0.23387182 0.43078163 0.5237599 0.27276462 -0.45972532 0.24405296 0.5910138 0.0631331 0.6717779 0.6284434 0.54342383 0.5672283 0.31983623
44 -0.12726964 0.63481396 -0.19816557 -0.1350348 0.5931269 0.63330156 0.29801527 -0.5356241 0.18991789 0.5359608 0.1675084 0.67679983 0.7414963 0.44455427 0.5497369 0.234286
29 -0.1095636 0.53157204 -0.15809521 -0.016613768 0.5695925 0.7313811 0.40861112 -0.46937382 0.1562827 0.50230694 0.0039095846 0.60852134 0.74310595 0.30516097 0.4721798 0.34152636
11 -0.019742668 0.56514513 -0.113796234 -0.072319634 0.5125692 0.6448605 0.38292882 -0.43241623 0.28076723 0.6028388 0.08219464 0.6287709 0.61218363 0.37389997 0.45325965 0.40366453
55 0.78156507 -0.38611424 -0.15626605 -0.74831486 0.25806516 0.44404584 -0.14877957 0.06196862 0.18519357 0.30867052 -0.5332401 -0.6656902 0.31893206 0.14391601 -0.119052626 0.19246587
56 0.7995875 -0.37741643 -0.1541386 -0.6747383 0.2954253 0.47481287 -0.1736717 0.06650842 0.27360144 0.3281154 -0.52840096 -0.68089455 0.33067137 0.11336363 -0.13431475 0.1640256
18 0.7850242 -0.36000058 -0.15686473 -0.6482615 0.25968486 0.40272886 -0.109323785 0.1055384 0.3345516 0.30836648 -0.5028196 -0.65542203 0.33176443 0.17872879 -0.08961285 0.18764926
66 0.70621717 -0.39341843 -0.11880972 -0.7001695 0.25716034 0.49620524 -0.11237006 0.09967221 0.34214643 0.35068205 -0.5564027 -0.71060556 0.32025102 0.025090102 -0.12520562 0.14807136
47 0.42806524 -0.780684 -0.3496875 0.008428008 0.6813764 -0.0604978 -0.09956021 -0.4150202 0.124794915 0.28198972 -0.6197864 -0.20160706 0.2785266 0.3132898 -0.09526045 0.0056737424
60 0.8582199 -0.41762018 -0.22028151 -0.8433131 0.255214 0.46573102 -0.13172783 0.1674348 0.34156036 0.23650542 -0.40699506 -0.73843855 0.37162963 0.076392874 -0.08721939 0.11612816
28 0.7128756 -0.46866417 -0.1575026 -0.86715686 0.2283069 0.2721709 -0.13970114 0.09536386 0.203025 0.3456527 -0.3142404 -0.6515593 0.3232293 0.15246314 -0.043559596 0.11721048
5 0.46623212 -0.7513123 -0.3620422 0.029315026 0.60879636 0.010113433 -0.047750175 -0.20829225 0.05912503 0.292185 -0.5984677 -0.20737606 0.22713575 0.4031495 -0.09796697 -0.035910804
51 0.48396692 -0.7915941 -0.34414792 0.061468747 0.64933646 0.005212393 0.019393222 -0.26717684 0.08696289 0.26988006 -0.57821864 -0.037074935 0.25485173 0.3499833 -0.05071062 -0.11642887
48 -0.51014405 -0.051894806 0.45885494 -0.39471802 -0.24657807 0.16527583 0.64665264 -0.30355924 0.24519989 1.0263479 -0.25504658 -0.49050674 0.08581196 0.5553145 -0.18917254 -0.97998595
15 0.82094836 -0.34254718 -0.15251106 -0.7383825 0.19827013 0.519238 -0.16533099 0.07610825 0.24160236 0.36877877 -0.4524813 -0.7518201 0.3007398 0.08900328 -0.15067062 0.19446103
20 0.7680585 -0.30790764 -0.20828317 -0.77849585 0.23332575 0.5030226 -0.16722336 0.14487946 0.26454452 0.35324305 -0.46156982 -0.70358765 0.3491351 0.04193953 -0.14206447 0.11164589
14 0.4568642 -0.7328534 -0.31546944 0.041777786 0.6903576 0.061698806 -0.07089719 -0.38949633 0.0914803 0.23133466 -0.78522915 -0.18090807 0.22370529 0.34864303 -0.091952324 -0.001292496
21 -0.4328504 -0.042509407 0.4553241 -0.17359728 -0.23664132 0.30344483 0.8226955 -0.05022543 0.3321224 1.1381568 -0.3046777 -0.5144748 0.14606868 0.5098224 -0.11678033 -0.9880552
58 -0.38996178 -0.053038027 0.59375364 -0.31059447 -0.2464216 0.06646837 0.811668 -0.15267122 0.266646 1.146952 -0.18521099 -0.45584103 0.2275646 0.5861211 -0.20299019 -0.9551415
30 -0.51564443 -0.025308361 0.515723 -0.21563208 -0.26891255 0.27503413 0.6823499 -0.30212107 0.44483864 1.1318221 -0.45547262 -0.47947958 -0.015616394 0.646609 -0.16620705 -0.97294945
27 0.6305503 -0.6412835 -0.24782231 -0.05790583 0.6425815 0.034957107 0.08485751 -0.3088611 0.18214187 0.22981013 -0.66616935 -0.23099671 0.2900977 0.24437547 -0.121681325 0.016578788
23 -0.49489433 0.08147506 0.607446 -0.28432596 -0.17403558 0.24722293 0.9751664 -0.2048812 0.42214292 0.9197208 -0.42179757 -0.5745848 0.22863291 0.5136381 -0.2319331 -1.0334216
53 -0.29763824 -0.07655213 0.4141529 -0.2561847 -0.3474832 0.16579835 0.8838256 0.08039761 0.27341828 1.2447971 -0.31739098 -0.40487966 0.123950295 0.6222071 -0.0050170934 -1.0362376
62 0.4808191 -0.72731626 -0.28432626 -0.083271824 0.595337 0.07606908 -0.108994864 -0.24012963 0.113351725 0.26656833 -0.53687525 -0.18912916 0.2983323 0.27674955 -0.006571842 0.0036670952
19 0.42368656 -0.72310394 -0.3428838 0.2796694 0.5742583 0.096893996 0.28319916 0.07532711 0.35177237 0.038181014 -0.5648993 -0.353553 0.3827342 0.3500336 0.099846475 0.059062965
22 -0.65734565 -1.0646453 -0.51941687 -0.92663103 -0.749895 -0.13688686 0.8580802 -0.60037243 0.58586174 -0.28891164 -0.56787574 0.3239318 1.1348155 1.2040224 -0.7783568 1.0967503
65 -0.48276588 -1.3386339 -0.72072446 -1.0026093 -0.79030687 -0.0554129 0.85669875 -0.24790995 0.6190434 -0.16053583 -0.3227552 0.48001957 1.1989733 1.1703099 -0.7257941 1.1959486
52 -0.5981759 -1.3954215 -0.572123 -1.0290905 -0.81064034 0.050160725 0.9139004 -0.4865695 0.4205201 -0.07195161 -0.491032 0.29216704 1.0385249 1.0406303 -0.7203154 1.3428454
63 0.3874722 -0.8216822 -0.49757427 0.17783047 0.53001964 -0.17232995 0.0277098 -0.06153328 0.2570207 0.2780593 -0.514858 -0.31310213 0.28048295 0.46645242 0.24313848 -0.040963627
8 0.3151616 -0.8785556 -0.46734333 0.18964754 0.6744886 -0.08045034 -0.00959326 0.011328769 0.34815478 0.061466187 -0.145529 -0.38831425 0.43791133 0.41451082 -0.0072898143 -0.077121034
9 -0.5952777 -0.990807 -0.54873365 -0.9018316 -0.7247322 -0.17334816 0.86780345 -0.38375816 0.55871415 -0.2710747 -0.60076636 0.15344205 1.1733439 1.1707952 -0.70680153 1.1997633
40 0.41539112 -0.8802857 -0.5327141 0.26349702 0.640701 -0.1402087 -0.108358584 -0.11578012 0.5252142 0.15260814 -0.22018462 -0.3383537 0.34663236 0.48766282 0.024031714 -0.043846413
43 0.95407957 -0.52131945 -0.51113665 0.6688174 -1.0837663 1.233659 -0.011732591 -1.0787022 -0.118855394 0.6107142 0.6473499 -1.7469174 1.0964688 0.33370197 -0.6695769 -0.53645504
41 0.37298617 -0.8206315 -0.35954836 0.21969947 0.65827495 -0.12433878 -0.05650884 0.06464439 0.64003336 0.13294874 -0.099561654 -0.46765873 0.4498241 0.5336347 0.079109065 0.025452308
6 0.35702628 -0.6751547 -0.40664342 0.45960563 0.5241815 -0.03701812 0.10075488 -0.0850594 0.53337926 0.11672878 -0.5119097 -0.38993782 0.32706788 0.50277793 0.048632417 -0.06785708
25 0.34580678 -0.83280694 -0.4398714 0.2573401 0.63289475 -0.048939258 -0.12797113 -0.081949346 0.57076806 0.14840813 -0.11350799 -0.39895505 0.3525776 0.45136046 -0.0704311 -0.028575797
16 0.93925905 -0.6272101 -0.6525189 0.4589424 -1.0556667 0.9549619 -0.053250134 -1.0252762 -0.1889096 0.6299286 0.800153 -1.6424142 1.0845405 0.35159916 -0.5570972 -0.3194391
46 0.30939785 -0.4332907 -0.4852705 0.08667776 0.49867633 0.7891504 -0.8049246 0.2749271 0.684722 0.2540197 0.15060753 -0.64557225 0.24865648 0.55143714 -0.5926088 -0.12761259
38 0.43676734 -0.78434515 -0.48004124 0.34580067 0.4766571 -0.231882 0.107591495 0.026233638 0.40687224 0.31837818 -0.2625201 -0.31616595 0.4014158 0.5084848 0.20081007 -0.076079056
24 0.22367296 -0.59856117 -0.32378048 -0.05756352 0.54855335 0.7063606 -0.6084582 0.35656044 0.37339333 0.28355834 0.36035192 -0.72190756 0.5048252 0.33650565 -0.76727813 -0.16009039
59 -0.49631596 -0.20160265 0.20099282 -0.2929997 -0.36445236 0.4611187 0.5187045 0.14115149 -0.040000003 1.2257718 -0.12931548 -0.5060242 0.11306231 0.3511671 -0.40031585 -0.8624694
4 0.4740796 -0.33968392 -0.49978712 -0.039922196 0.5113567 0.90160877 -0.9170737 0.3243122 0.42241165 0.29766604 0.17396271 -0.63524544 0.3003377 0.6296823 -0.9864365 -0.20979863
7 0.99786854 -0.58238035 -0.527883 0.1741882 -0.9695636 1.0786757 -0.56635374 -1.5647482 -0.36005434 0.6660865 0.9606113 -2.0845294 1.2924154 0.43943295 -0.22465633 -0.45122942
35 1.1577951 -0.6640905 -0.46918985 0.20934533 -1.0187304 1.2334455 -0.56154454 -1.6199949 -0.14629272 0.7154234 0.9984533 -1.9899607 0.93245983 0.5464078 -0.19531251 -0.37774682
10 -0.55035514 -0.032438308 0.107499234 -0.37719986 -0.38424832 0.3741381 0.5605456 -0.0058292695 0.25213432 1.0693926 -0.0582903 -0.6904031 0.08848224 0.36251125 -0.1643987 -1.0486779
33 -0.23502097 0.83908397 -0.34541318 -0.41535866 0.66716427 0.780776 0.5509393 -0.6787663 -0.422727 0.16322167 0.08911152 0.1408318 0.69110596 0.07508469 0.13532582 0.27746284
57 0.3473916 -0.37665597 -0.40768588 -0.09150413 0.5642966 0.7391665 -0.94150084 0.1937473 0.48487985 0.2635928 0.32796428 -0.69582206 0.49193102 0.5520914 -0.9429032 -0.38656354
3 0.36670035 -0.24768975 -0.6165305 -0.08580543 0.59260166 0.79724616 -0.8497639 0.29734412 0.47200114 0.113791324 0.32566112 -0.70619136 0.50279003 0.5854678 -1.016047 -0.30505574
39 0.45972034 -0.32629696 -0.6224314 -0.11843694 0.35025096 0.7260406 -0.90149415 0.46044406 0.3334296 0.43326586 0.3290665 -0.5988396 0.40253994 0.71594703 -0.8541619 -0.29868853
54 0.13901149 0.67819655 -0.5690805 -0.34644333 0.5638837 0.8627874 0.76855326 -0.09017019 -0.6241503 0.38800925 0.14373372 0.46439967 0.44202673 0.36339378 0.2982497 0.258487
17 -0.6336006 -0.80133736 -0.6501623 -1.262377 -1.2141263 0.18499224 -0.21640837 -0.008266541 0.492957 -0.046642527 -1.114142 0.84813774 1.4127496 1.3604217 -0.47529662 0.4819153
67 -0.79615104 -0.8284904 -0.6144118 -1.2698627 -1.0858985 0.15229379 -0.18070222 0.049577285 0.29228842 -0.1284603 -0.885538 0.6998459 1.543542 1.1539972 -0.6754972 0.29924354
13 0.43955213 -1.0331136 -0.086417615 -0.6920552 0.3681311 0.97588897 -0.3885942 0.12994693 0.5502087 0.33074293 0.13568261 -0.47925246 -0.013434459 0.04052236 -0.22384943 0.270991
1 -0.17505854 0.6137692 -1.3886248 -0.6430028 0.32375312 0.67231584 0.7131558 -0.61744124 0.11162488 0.25827074 0.61656034 -0.24073225 -0.045381766 -0.14632587 0.23472802 0.41716307
34 -0.23821081 0.8235926 -1.5876588 -0.42873985 0.13486709 0.5614864 0.48669636 -0.6101388 0.12754354 0.27709725 0.3401685 -0.37119755 -0.06422606 -0.022674035 0.26850048 0.35489252
50 -0.018612817 0.7163096 -1.505806 -0.8512879 0.17935942 0.3613291 0.7036023 -0.56437635 -0.048837367 0.24276002 0.68037444 -0.25625637 -0.010356069 0.09174648 0.21205573 0.29696405
0 -0.11231495 0.7246185 -1.4914271 -0.492601 0.2147272 0.68506664 0.8476903 -0.49861956 0.31906822 0.02475394 0.42090923 -0.32840362 -0.06231999 -0.16184683 0.08275838 0.27114877
49 0.41438472 -0.8205376 -0.24384224 -0.46796066 0.054275945 1.1436415 -0.59552693 0.31088808 0.44486493 0.5445113 -0.22088237 -0.4125222 0.099983886 -0.031612553 -0.14483084 0.29676306
64 0.9313796 -0.8409268 -0.19161819 -0.24851929 0.61195934 0.20292918 0.17480099 -0.599743 0.13680989 -0.12076949 -0.5924343 0.45910582 0.0017485325 0.5360742 -0.16063432 -0.5579736
32 0.97599953 -0.9256447 0.031147184 -0.25683072 0.6587094 0.32439423 0.22337991 -0.6788872 0.21880943 -0.07632058 -0.30523866 0.51649433 -0.26751152 0.68308544 -0.0804296 -0.29372332
2 1.16992 -0.2455783 -0.46296683 -0.0717733 -0.8977115 1.4416031 -0.030283812 -0.43678567 0.8262591 0.1886435 0.13897064 0.74546075 1.2372802 -0.37577277 -0.9878314 -1.7856116
37 0.9780726 -0.28152108 -0.9304548 -0.43045685 -0.8982256 1.4320327 -0.45337138 -0.7281459 0.4050788 0.1373094 -0.037009116 0.6572128 1.0329713 -0.4466803 -0.91868126 -1.9941103
